svm_type c_svc
kernel_type rbf
gamma 0.0196078431372549
nr_class 2
total_sv 4
rho 0.5552870735486484
label 1 2
nr_sv 1 3
SV
1.0 51:51.0 
-0.23523941268908613 49:51.0 
-0.2270118006871518 49:49.0 
-0.537748786623762 51:40.0 
